{
  "model_type": "MobileNetV2_Transfer_LeafClassifier",
  "input_dim": 16,
  "hidden_dim": 32,
  "num_classes": 6,
  "layer1_weights": [
    [
      0.34650277102404164,
      0.3730926416170186,
      -0.7840287888838011,
      0.1536941910031642,
      0.9492352150064118,
      -0.019005527959721727,
      -0.18417496890148438,
      -0.31382112109140653,
      1.5991938132581816,
      0.2580821064761021,
      -0.18834512196550504,
      -0.8111450940131332,
      -0.07778585677531558,
      0.603847135120208,
      1.1548816532818043,
      0.22095504704691843,
      -0.4096259647541174,
      -0.4369552437662826,
      -0.3290846620347925,
      0.17473508693501347,
      0.017744461314118328,
      -1.2540449186790825,
      -0.27809703631359395,
      -0.3910989530039719,
      0.14633648845275485,
      -0.06874476185527721,
      0.7042868555265229,
      -0.19205853440062282,
      -0.1705868442475868,
      -0.37199758856748055,
      0.6643374793242973,
      -0.017884618997503144
    ],
    [
      0.07933193511339412,
      0.31413167741416104,
      -0.2649165093827997,
      -0.7240841486890357,
      -0.07552865060769988,
      -0.00913630691461351,
      -0.055094001852520585,
      -0.06228352837863444,
      -0.24090776201094286,
      -0.49673339944991163,
      0.3063700678255147,
      0.227437094797984,
      0.6723900148985096,
      0.627466475612939,
      0.2976689800614397,
      0.38830670864465644,
      -0.12472494810915052,
      -0.22137244399506095,
      0.6497838331249629,
      0.3605559304862264,
      -0.025191942006815946,
      -0.022036970666901204,
      0.2682864413925779,
      0.07617781669042101,
      -0.35853804029062725,
      -0.1214433692599951,
      0.28785948730129646,
      0.08748676165946583,
      0.6528038174830361,
      -0.3862620073440515,
      0.22484724984751697,
      0.08610208549938926
    ],
    [
      -0.21704243846065693,
      -0.47722718922946356,
      -0.27464550192379,
      0.2751853161035423,
      1.5720618199062786,
      -0.6760697734372573,
      -0.3676545622086103,
      -0.8062995202396809,
      0.7896956971713572,
      0.209825831092705,
      0.0680560665737397,
      -0.6897601325603633,
      -0.18939286246325704,
      0.285679308818235,
      1.2152866116822534,
      -0.2757314727516811,
      -0.44746320597049427,
      0.1608733497076265,
      -0.025034565465481672,
      -0.6312993660929482,
      0.4931328981955351,
      -0.0938132882845402,
      -0.12696918144603714,
      0.06685523732037696,
      -0.2352592932817369,
      0.04319961006965441,
      0.5801543920152238,
      -0.16078884402104338,
      0.18673761358011037,
      -0.6467976495785551,
      -0.054089582011190525,
      0.3275020918941447
    ],
    [
      -0.2295306674785061,
      0.17016789094848103,
      0.5521139044715433,
      0.18353479660714417,
      -0.625590149860827,
      0.3395628053077516,
      -1.0898875092074798,
      -0.6154201794463369,
      -0.5662497066050992,
      0.07300907466765001,
      0.19700976784633975,
      0.40724942653913293,
      -0.8861851518380267,
      -1.3779065330806826,
      -0.07567572216667602,
      0.28964011888447827,
      -0.35140659471613434,
      1.5739904348037708,
      -0.9383130165477002,
      0.9586913074982178,
      0.7458902611159214,
      1.8080259320480736,
      0.013430242705061862,
      0.0990763522823931,
      -0.3948397274795351,
      0.1674874272558122,
      -0.6043464214729918,
      -0.5051637401718602,
      0.3916839062503627,
      -0.21184034252975126,
      0.1935479401307839,
      0.8434498027029855
    ],
    [
      0.7554236670716524,
      -0.25137193743327246,
      -0.3731720829998465,
      -0.3968048141495819,
      1.2210836067304152,
      0.5352814499406351,
      -0.7891895854510319,
      -0.02345276141648865,
      0.948450731782752,
      0.48509010391235624,
      -0.21740197810351503,
      -0.9897170353043783,
      -0.1758539272247248,
      -0.20856560990456544,
      1.1937349580836392,
      -0.2437137751986838,
      -0.32741307849672807,
      -0.37786165166171626,
      0.1511041863673482,
      -0.6693681430104097,
      -0.06691234830834596,
      0.2676367428352974,
      -0.2557152761665622,
      -0.19369062740312182,
      -0.49590391133147005,
      0.18975462034896926,
      -0.5134415388593475,
      -0.04406938574260723,
      -0.31046700781461983,
      -0.14408088236686362,
      0.9464426981314366,
      -0.14152048905014555
    ],
    [
      -0.25314902693851815,
      -0.4211006255642908,
      0.7255481970166693,
      0.4574321006617891,
      -0.5284535780412473,
      0.3034478424515696,
      0.06387444260479405,
      -0.18715624484954924,
      1.1922673099259613,
      0.2909628274748149,
      -0.4629051801036141,
      -0.36700010063742095,
      -0.7082851334310012,
      -0.21807346343046952,
      -0.35601798161905546,
      -0.06013801097840047,
      -0.2663866317742503,
      0.4620894542803049,
      0.3236361667657807,
      0.28237550629275904,
      0.09350838227144567,
      0.4134664560715404,
      0.4374759860492234,
      -0.40456189670292897,
      0.12296209095342915,
      0.6262012791059594,
      -0.6562199990005241,
      -0.37257165955188104,
      -1.8232326189705264,
      -0.27870676144920326,
      1.2815972264413071,
      0.5743784452447726
    ],
    [
      -0.42445959672458866,
      0.09587747335862655,
      -0.2879767812029949,
      -0.12361860471735213,
      -0.8748713981609179,
      -0.3820303619914682,
      0.5504541381179445,
      -0.684594083569634,
      -1.615708489343102,
      0.3421918144342157,
      -0.19627172610675545,
      1.2370800912294702,
      0.24924131013229953,
      -0.6362790075639891,
      -0.8246760851006456,
      -0.6844891999889925,
      -0.10469543423267401,
      1.3870589453377808,
      -0.26023636526235594,
      0.459282557896634,
      -0.6503650803165554,
      1.2931871141980529,
      0.011757630286869556,
      0.3183437818439954,
      0.11217096660665883,
      -0.0902366140076113,
      -0.18739890352293997,
      0.282171796075924,
      0.33371314008366715,
      0.20098324038880094,
      -0.4748350156178092,
      0.40822027134926187
    ],
    [
      -0.12388137225174276,
      0.02693634201599032,
      0.17476731118271693,
      -0.19897154794936942,
      0.5243295210663165,
      -0.847788368135183,
      3.0756365940044756,
      0.08924031874883499,
      0.8070174235435428,
      -0.18430068724981877,
      0.27871730685090473,
      -0.7682446430363404,
      -0.5742782079290244,
      2.3580760186189824,
      1.5332767335992286,
      -0.9042286226103915,
      -0.061133923097088774,
      -2.6299211014150234,
      0.3277355308194398,
      -1.6467214306487614,
      -0.8468485930080749,
      -1.6298251745709877,
      -0.4137522261268208,
      0.33796505606952526,
      0.1658446296430799,
      -0.5416898364000671,
      1.9726089490608738,
      -0.6688119086435179,
      0.11284147681540956,
      -0.052801908859905225,
      1.0587823974585178,
      -1.1775394595853703
    ],
    [
      -0.07696193779971498,
      -0.12648023635621297,
      -0.6397503077328152,
      0.3099837570757468,
      -1.9407063422027109,
      0.24959500816351007,
      0.8295799053850319,
      0.3442752170942461,
      -3.5588407335906638,
      0.6203299963496107,
      -0.15346077445206371,
      4.071332556180528,
      -0.5912018270590873,
      -0.0842453773461766,
      -3.590563514872536,
      0.005260215887399906,
      0.8248154350205932,
      1.607646077654369,
      0.021497520568271564,
      1.2467321370248976,
      0.39284058234128233,
      1.798057940601922,
      0.21875092800535076,
      0.05162815689122537,
      0.25854167166285297,
      -0.41729440443719085,
      -0.4693997237723359,
      0.39946898674625547,
      2.507256831120333,
      0.5656220800671511,
      -2.5838456446158866,
      0.0024366169116161115
    ],
    [
      -0.3278280486252027,
      0.35399404479324365,
      0.5482829788751287,
      -0.1467550974124311,
      0.5813946071884067,
      -0.20823560332966137,
      -0.04602976101280145,
      0.4310882824956889,
      -0.8264711265760194,
      -0.2000679757895116,
      0.2872720406256535,
      1.0735637055518434,
      0.21936586880627365,
      0.4351960755515732,
      -1.574556330566234,
      -0.7950819810558458,
      0.024545366258910156,
      1.0829326423486907,
      -0.17096490617307844,
      1.198047920302396,
      1.1299359091403993,
      -1.2324753090619085,
      -0.10493292384410602,
      -0.041214583967768635,
      -0.5106385157225043,
      -0.10631706963314984,
      1.2109657804586642,
      0.21436753999079508,
      2.8428656583911995,
      0.029308026760396986,
      -3.1367959996669126,
      -0.692177912866088
    ],
    [
      -0.4829010198883573,
      0.5676537557725672,
      -0.19725837359158402,
      0.03886285608368206,
      0.5720495917462756,
      0.38400120755332606,
      -0.5485107783052862,
      -0.39651673581823565,
      1.1879105513083923,
      -0.29531785357588636,
      -0.6448726435488913,
      -0.3607731351198546,
      -0.2606924677537576,
      -0.08241262382182814,
      0.613677637587753,
      0.8843186894240201,
      -0.06996790107484446,
      0.2897550586211979,
      0.0013743165909389137,
      -0.6788886992754066,
      -0.2606644651709195,
      -0.6165718141438452,
      -0.3133782647579514,
      0.011211602443213805,
      -0.3299838642094968,
      0.025866127350600707,
      0.12479390063091228,
      0.2859751964705926,
      -0.9242357066816266,
      -0.4136747321796628,
      -0.10961577192823756,
      -0.09693926780038466
    ],
    [
      0.0951135013981169,
      0.2449675507250799,
      -0.374458706206621,
      0.2770885158571858,
      -0.3657871653100452,
      0.4012651428244131,
      0.4304709260543614,
      -0.3744995570769556,
      -0.1778490909995995,
      0.03191569611287511,
      -0.21779374858569092,
      0.7460605806675897,
      -0.17461935585066998,
      -0.10540256414404856,
      -0.657160931632336,
      -0.24155796726332107,
      0.4469377212030359,
      0.10391055125195922,
      -0.2320958320714225,
      0.428503288659248,
      -0.19686345645723183,
      0.3910356833739166,
      -0.05534132181746919,
      -0.3028728293947926,
      -0.03937171753957729,
      -0.8670948983526519,
      0.03536953046741876,
      -0.21445315914885704,
      0.3284396853508467,
      -0.2837242767146631,
      -0.7966816054394635,
      -0.4028442650583476
    ],
    [
      -0.8143069723389864,
      -0.5669000646467539,
      0.14704381497873298,
      -0.3035319221836352,
      -0.9409440304805203,
      0.2300661273131886,
      -0.1847393638969807,
      -0.1775820909875306,
      -1.1318625293610367,
      0.0333991977117896,
      -0.22218890569281058,
      1.9616762344406835,
      -0.38283403272701233,
      -1.4987467690491065,
      -0.8751140239757174,
      -0.15054111813830648,
      -0.08639918590699998,
      1.3688419059977615,
      -0.49501573140890065,
      1.6690778444885113,
      0.25738116910666314,
      2.733894130043772,
      0.07883093410477864,
      0.08539473905985293,
      -0.4631741783765938,
      0.024040790465254074,
      -1.2030748693193078,
      -0.18687070604679934,
      0.2512925871839597,
      -0.8000054683546013,
      0.9697820214453365,
      0.556038450680013
    ],
    [
      -0.34264653184807264,
      -0.13088710715372212,
      -0.4039451084614553,
      -0.300303769128715,
      -0.03606807229021616,
      -0.34142321229064077,
      0.2416390995469062,
      -0.16150484414198524,
      -0.35071763743611495,
      -0.19756391149646693,
      -0.11321215434753293,
      0.1162247988656548,
      0.15658872243950459,
      -0.1335379349366397,
      0.0014348456509855633,
      -0.47750338095907524,
      -0.013370029797093886,
      0.31770866636887635,
      0.028511186376692896,
      0.4551262857278465,
      0.1562549059273377,
      0.5420818399167134,
      -0.16529086474915367,
      -0.3697889824919708,
      0.2842782580612651,
      0.05935768770385395,
      -0.23753206922604175,
      0.685838539677222,
      0.12001972249586629,
      0.1114873267398863,
      0.018876816294813026,
      0.6937492755121905
    ],
    [
      -0.5392955073660549,
      -0.3412480532499597,
      0.056218622198894175,
      0.14185166098941768,
      0.03770819063921905,
      0.19831965656321737,
      -0.060085888778303315,
      0.19490457808840123,
      0.6623163366474749,
      0.22954076584379704,
      -0.5451809407254927,
      -0.32360527899100533,
      0.3345637139452504,
      -0.24563018243112153,
      -0.23438996275834448,
      0.07880416057019543,
      -0.2306167907749375,
      0.2629195483880435,
      -0.3675063819317237,
      -0.13981186771182277,
      -0.6405094859158551,
      -0.28805575671810185,
      -0.06408165088235847,
      -0.478775747101451,
      0.2504773599865036,
      0.04124847204305067,
      -0.38129499158136915,
      -0.6238531689452188,
      -0.21598445071702532,
      -0.03767950553774493,
      0.17407459668580563,
      -0.6030811082627946
    ],
    [
      -0.532481996661904,
      -0.27658943842204314,
      0.19372863837994603,
      0.308871114183485,
      -0.5275867289267265,
      0.10135638308991496,
      0.3380473088002957,
      -0.007260283169483093,
      0.3065964062712346,
      -0.8572238613898467,
      -0.35581648600765736,
      0.5725450412817225,
      -0.0717611966817195,
      -0.14760727747359415,
      0.11096271931222518,
      0.3646290875752215,
      -0.520950337206402,
      0.5564881129464745,
      -0.4845830685648924,
      0.3526570629135708,
      0.00431220476855685,
      0.7884321486717011,
      -0.05980503927268027,
      0.1754861431405612,
      0.09627679695350305,
      -0.7003405623872409,
      -0.2906691201957947,
      -0.015122634898129813,
      -0.12349074578894548,
      -0.28802983317525543,
      0.6718878337692408,
      0.3679535374480462
    ]
  ],
  "layer1_biases": [
    0.01,
    0.01,
    0.01,
    -0.1028772205498297,
    0.4587184962744644,
    0.01,
    -0.31642316330630976,
    0.01,
    0.8438752056914686,
    0.01,
    0.01,
    -0.30190165796021995,
    0.01,
    -0.15787437925100734,
    0.7097781765035062,
    0.11467243835701012,
    0.01,
    0.15103731329547923,
    0.01,
    -0.4244976667478145,
    -0.10492228309200717,
    0.20884374173457496,
    -0.06889499252354891,
    0.01,
    0.0050220974783449805,
    0.01,
    -0.10929097798997744,
    0.01,
    -0.8603721481687016,
    0.01,
    0.678047939296366,
    0.1484061034406059
  ],
  "layer2_weights": [
    [
      -0.2107509196787014,
      -0.20457587728569154,
      -0.07605011540802796,
      0.0289878860113592,
      -0.014171388360476616,
      0.131729244587239
    ],
    [
      -0.12204774160756693,
      0.5010212665407884,
      -0.06023380143210435,
      0.00580383756576976,
      -0.3066677149605105,
      -0.32665956154813186
    ],
    [
      -0.053923062874334717,
      -0.20883302426476832,
      0.2550422716817928,
      0.021967107615043845,
      0.07594309561911097,
      0.47371760625503545
    ],
    [
      0.4205890874036597,
      0.37479215243209857,
      -0.03507379174860451,
      -0.09923007811730482,
      0.16900927433149027,
      -0.0735020322830094
    ],
    [
      -0.04434309918155105,
      -1.3712826782246026,
      -2.060805011326911,
      1.5321414200004413,
      0.8946516561468267,
      0.38195684039534245
    ],
    [
      0.12327279372127743,
      0.31487427739207746,
      -0.0031549437510710802,
      -0.1354120636082722,
      0.3895799533436613,
      0.1827549009729016
    ],
    [
      0.4269135560303899,
      2.191965748028842,
      -1.5546273780392736,
      -1.4511050218568067,
      1.6938836125315515,
      -1.085187584323517
    ],
    [
      0.17199748498993706,
      -0.28076972020522617,
      -0.2683660990621355,
      -0.4225295540166625,
      -0.27165481468918157,
      0.09482854634173785
    ],
    [
      0.5893102817242639,
      -1.7962655989439782,
      -1.6111820785640372,
      2.7176183609119997,
      1.6798424042019497,
      -1.4659436845735414
    ],
    [
      0.017265568500504366,
      0.24506484113399563,
      0.15888982431078086,
      -0.20216933400155498,
      -0.11753500429333869,
      0.2573892595915924
    ],
    [
      0.2096028928847261,
      -0.1267657851797319,
      0.4421248482493614,
      -0.03224232566238047,
      -0.08293327771487764,
      -0.11724729252968763
    ],
    [
      0.26795184874188765,
      2.3807170779094426,
      1.2712299692321853,
      -2.8296742530358583,
      -1.563925432382817,
      1.4173073559569545
    ],
    [
      0.4448869535608492,
      0.32199961344921185,
      0.13884496951809056,
      0.013430727594543147,
      0.4559370735121776,
      -0.4798554228565596
    ],
    [
      -0.29476729330403506,
      1.2940616755906118,
      -2.309271691181135,
      0.3276875575674355,
      2.1648648672625432,
      -0.301829534030857
    ],
    [
      0.6911836383234715,
      -2.133532912974529,
      -1.9145458880538822,
      2.158094748495348,
      1.5202582447946487,
      -1.645092076932806
    ],
    [
      -0.761108678822704,
      -0.13863096392897725,
      0.47979630778899174,
      0.3997087009102044,
      -0.2734317856223704,
      -0.5231823674126583
    ],
    [
      0.015341614171790497,
      0.107729227911812,
      0.4186816352015701,
      -0.05734047162814468,
      -0.0328721077303963,
      -0.11027220364045993
    ],
    [
      0.5571982409542999,
      -0.028198454445054453,
      1.8162533168409716,
      -0.22620288143700862,
      -2.757250322212686,
      1.486670375718178
    ],
    [
      -0.16961225190391369,
      0.07892129198157626,
      -0.3220224001034238,
      0.19858528418983526,
      0.06598955464821593,
      0.14036514539889272
    ],
    [
      0.19197727142583312,
      -0.10241960193629525,
      0.9844294930451083,
      -1.254661677448819,
      -1.9784595165300878,
      1.1779137563926971
    ],
    [
      -0.45648467741379173,
      -0.570938554880349,
      -0.07463689013726868,
      -0.33890141810397245,
      -0.9211415105728628,
      1.0838235995643957
    ],
    [
      1.5359195331188968,
      -0.12258908343723572,
      3.009543933957859,
      -1.2469292202442206,
      -2.4278362269083282,
      -0.0076582875688456465
    ],
    [
      -0.10472405469872832,
      -0.26171406022912846,
      -0.28466798612723004,
      0.9065163519744791,
      0.06016412342819542,
      -0.09626375321391613
    ],
    [
      -0.17323873707466164,
      0.1599096726191602,
      -0.11016191000555596,
      0.37156551366886564,
      0.4661966178327078,
      0.06467565661975573
    ],
    [
      -0.025345436858484956,
      0.019622498078506145,
      0.2870875888311783,
      -0.32542458129778895,
      0.541800666519021,
      -0.090728017295788
    ],
    [
      -0.01434175257124386,
      -0.4726457145702304,
      0.3543507107719496,
      -0.24759799684202066,
      0.05605303295090697,
      0.44637555916181376
    ],
    [
      -0.3780426640221646,
      0.8824036179910869,
      -2.456336838396225,
      0.34117945917474624,
      1.562088944552207,
      0.3232389564009423
    ],
    [
      0.07379849306278279,
      0.08561873373266578,
      -0.04935742769294889,
      -0.05090609557672124,
      0.015645455362955616,
      -0.06322142013466735
    ],
    [
      -0.7904027748891306,
      1.688638974584392,
      -1.1805048299698828,
      -1.6627952660502476,
      -0.6328578700169707,
      2.598159890073362
    ],
    [
      0.11626823555918657,
      -0.49787657832965987,
      -0.19635299031176714,
      0.2203143176396148,
      -0.02114765742327825,
      0.1484083518768704
    ],
    [
      1.9882442719367033,
      -1.6880609071114678,
      0.6737852305034607,
      0.9843805667710224,
      1.0610518781384042,
      -2.6693870370231596
    ],
    [
      0.18745723916243762,
      -0.7598868029754366,
      1.106941946284639,
      0.16920431285853332,
      -1.1473753873679993,
      -0.3101557638481978
    ]
  ],
  "layer2_biases": [
    0.5853824345372918,
    -0.3425586531155516,
    -0.5160722882783967,
    0.7305022569729633,
    -0.24813223467223153,
    -0.1491215148605898
  ]
}